-0.1 -0.1 0.09488377567609327 0.02439184914510551 0.09516258196404043
-0.1 -0.08 0.08725651313313552 0.01806937140464288 0.08602311778870233
-0.1 -0.06 0.07974544530989425 0.01174689366418026 0.07669902418989586
-0.1 -0.04 0.07239142413724939 0.005424415923717641 0.06718657140585861
-0.1 -0.02 0.06523792245687091 -0.000898061816744981 0.05748195432864257
-0.1 0 0.05832937512706638 -0.007220539557207603 0.04758129098202022
-0.1 0.02 0.05171046030007884 -0.006800018421869698 0.03748062096864231
-0.1 0.04 0.04542492246153442 -0.006379497286531793 0.0271759038858261
-0.1 0.06 0.03951321736517601 -0.005958976151193887 0.0166630177093404
-0.1 0.08 0.0340114059026539 -0.005538455015855982 0.005937757144540936
-0.1 0.1 0.02894849557145603 -0.005117933880518077 0

-0.08 -0.1 0.08739777420301119 0.01836965697813139 0.08602311778870233
-0.08 -0.08 0.08004518761935289 0.01233895742953839 0.07688365361336422
-0.08 -0.06 0.07283856641990073 0.006308257880945392 0.06755956001455776
-0.08 -0.04 0.0658185810711147 0.0002775583323523932 0.05804710723052051
-0.08 -0.02 0.05902714697855822 -0.005753141216240605 0.04834249015330446
-0.08 0 0.05250647032399135 -0.0117838407648336 0.03844182680668211
-0.08 0.02 0.04629816432293575 -0.01133648989936023 0.0283411567933042
-0.08 0.04 0.04044128739898308 -0.01088913903388685 0.018036439710488
-0.08 0.06 0.03497112832790349 -0.01044178816841347 0.007523553534002298
-0.08 0.08 0.02991677073655487 -0.009994437302940096 0
-0.08 0.1 0.02530072573955471 -0.009547086437466719 0

-0.06 -0.1 0.08006646809310094 0.01234746481115727 0.07669902418989586
-0.06 -0.08 0.07301709884517652 0.006608543454433895 0.06755956001455776
-0.06 -0.06 0.06614234967713309 0.0008696220977105203 0.05823546641575129
-0.06 -0.04 0.05948161218969295 -0.004869299259012855 0.04872301363171404
-0.06 -0.02 0.0530747125364804 -0.01060822061573623 0.039018396554498
-0.06 0 0.04696099209897015 -0.0163471419724596 0.02911773320787565
-0.06 0.02 0.04117793394421504 -0.01587296137685076 0.01901706319449774
-0.06 0.04 0.03575971157506654 -0.01539878078124191 0.008712346111681532
-0.06 0.06 0.03073505052903709 -0.01492460018563306 0
-0.06 0.08 0.02612699512903818 -0.01445041959002421 0
-0.06 0.1 0.02195109011169526 -0.01397623899441536 0

-0.04 -0.1 0.07292881019575206 0.006325272644183152 0.06718657140585861
-0.04 -0.08 0.06620993717172907 0.0008781294793294003 0.05804710723052051
-0.04 -0.06 0.05969223041395485 -0.004569013685524351 0.04872301363171404
-0.04 -0.04 0.05341318299770374 -0.0100161568503781 0.03921056084767679
-0.04 -0.02 0.04740993661853087 -0.01546330001523185 0.02950594377046075
-0.04 0 0.04171816233219631 -0.02091044318008561 0.0196052804238384
-0.04 0.02 0.03637065825388353 -0.02040943285434128 0.009504610410460491
-0.04 0.04 0.03139552832700195 -0.01990842252859696 0
-0.04 0.06 0.026815849467113 -0.01940741220285264 0
-0.04 0.08 0.02264783354351216 -0.01890640187710832 0
-0.04 0.1 0.0189007216565109 -0.018405391551364 0

-0.02 -0.1 0.06602371591841168 0.0003030804772090332 0.05748195432864257
-0.02 -0.08 0.0596602668875649 -0.004852284495775095 0.04834249015330446
-0.02 -0.06 0.05352192609475164 -0.01000764946875922 0.039018396554498
-0.02 -0.04 0.04764359875562073 -0.01516301444174335 0.02950594377046075
-0.02 -0.02 0.04205907993785395 -0.02031837941472748 0.0198013266932447
-0.02 0 0.03679964384658382 -0.02547374438771161 0.009900663346622349
-0.02 0.02 0.0318924635749466 -0.02494590433183181 0
-0.02 0.04 0.0273602941512238 -0.02441806427595202 0
-0.02 0.06 0.02321964032918534 -0.02389022422007223 0
-0.02 0.08 0.0194808047372921 -0.02336238416419244 0
-0.02 0.1 0.01614671563994835 -0.02283454410831265 0

0 -0.1 0.05938877154876315 -0.005719111689765085 0.04758129098202022
0 -0.08 0.05340278955502447 -0.01058269847087959 0.03844182680668211
0 -0.06 0.04766256118143306 -0.01544628525199409 0.02911773320787565
0 -0.04 0.04219991618365136 -0.0203098720331086 0.0196052804238384
0 -0.02 0.03704444873681586 -0.0251734588142231 0.009900663346622349
0 0 0.0322222267249449 -0.03003704559533761 0
0 0.02 0.02775539673288849 -0.02948237580932234 0
0 0.04 0.02366043356195408 -0.02892770602330708 0
0 0.06 0.01994828612856195 -0.02837303623729182 0
0 0.08 0.01662314142947085 -0.02781836645127655 0
0 0.1 0.0136823027147408 -0.02726369666526129 0

0.02 -0.1 0.05305950030247909 -0.005329502457493661 0.03748062096864231
0.02 -0.08 0.04746929858095631 -0.01016342399615246 0.0283411567933042
0.02 -0.06 0.04214183658337602 -0.01499734553481126 0.01901706319449774
0.02 -0.04 0.03710487688923314 -0.01983126707347006 0.009504610410460491
0.02 -0.02 0.03238325019316556 -0.02466518861212886 0
0.02 0 0.02799824882444043 -0.02949911015078766 0
0.02 0.02 0.02396606708203939 -0.02895117312537068 0
0.02 0.04 0.02029793098764123 -0.0284032360999537 0
0.02 0.06 0.01699891459113976 -0.02785529907453672 0
0.02 0.08 0.01406787624754636 -0.02730736204911974 0
0.02 0.1 0.01149736085469208 -0.02675942502370276 0

0.04 -0.1 0.04706818165987121 -0.004939893225222236 0.0271759038858261
0.04 -0.08 0.04188792684540562 -0.009744149521425333 0.018036439710488
0.04 -0.06 0.03698271252086379 -0.01454840581762843 0.008712346111681532
0.04 -0.04 0.03237594010809154 -0.01935266211383153 0
0.04 -0.02 0.0280879005918095 -0.02415691841003463 0
0.04 0 0.02413431495514247 -0.02896117470623772 0
0.04 0.02 0.02052635587009457 -0.02841997044141902 0
0.04 0.04 0.01726967208089225 -0.02787876617660033 0
0.04 0.06 0.01436434597714926 -0.02733756191178163 0
0.04 0.08 0.01180451940482651 -0.02679635764696293 0
0.04 0.1 0.009578044942830727 -0.02625515338214423 0

0.06 -0.1 0.04144314405782815 -0.004550283992950811 0.0166630177093404
0.06 -0.08 0.03668162911839969 -0.009324875046698205 0.007523553534002298
0.06 -0.06 0.03220262795983056 -0.0140994661004456 0
0.06 -0.04 0.0280253624108778 -0.01887405715419299 0
0.06 -0.02 0.02416483741592421 -0.02364864820794039 0
0.06 0 0.02063199786408116 -0.02842323926168778 0
0.06 0.02 0.01743279751182007 -0.02788876775746736 0
0.06 0.04 0.01456815098908139 -0.02735429625324695 0
0.06 0.06 0.01203348513210865 -0.02681982474902653 0
0.06 0.08 0.00981854498937065 -0.02628535324480612 0
0.06 0.1 0.007908678657475872 -0.0257508817405857 0

0.08 -0.1 0.03620707712375587 -0.004160674760679387 0.005937757144540936
0.08 -0.08 0.03186749509949405 -0.008905600571971077 0
0.08 -0.06 0.02781345651966253 -0.01365052638326277 0
0.08 -0.04 0.02405914149615149 -0.01839545219455446 0
0.08 -0.02 0.02061508654894962 -0.02314037800584615 0
0.08 0 0.01748732489451986 -0.02788530381713784 0
0.08 0.02 0.01467732174893022 -0.02735756507351571 0
0.08 0.04 0.01218147968973802 -0.02682982632989357 0
0.08 0.06 0.009991145073502403 -0.02630208758627144 0
0.08 0.08 0.008093323542924299 -0.0257743488426493 0
0.08 0.1 0.006470962337243801 -0.02524661009902717 0

0.1 -0.1 0.0313764531238107 -0.003771065528407962 0
0.1 -0.08 0.02745677855028561 -0.008486326097243949 0
0.1 -0.06 0.0238204994705032 -0.01320158666607994 0
0.1 -0.04 0.02047760618817695 -0.01791684723491592 0
0.1 -0.02 0.01743397719552837 -0.02263210780375191 0
0.1 0 0.01469147036402065 -0.0273473683725879 0
0.1 0.02 0.01224716467034756 -0.02682636238956405 0
0.1 0.04 0.01009370613883764 -0.02630535640654019 0
0.1 0.06 0.008219616746280632 -0.02578435042351634 0
0.1 0.08 0.006609667543597953 -0.02526334444049249 0
0.1 0.1 0.005245213900300448 -0.02474233845746864 0

