-0.1 -0.1 0.094905559105013 0.09488258163557339
-0.1 -0.08000000000000001 0.08727672511712681 0.08725606118644611
-0.1 -0.06 0.07976401925953892 0.07974583815625262
-0.1 -0.04 0.07240873662717948 0.07239266607909546
-0.1 -0.02 0.06525393638220195 0.06523980113356605
-0.1 -3.469446951953614e-18 0.05834442518730052 0.05833187068837958
-0.1 0.02 0.05172441314843342 0.05171363684062097
-0.1 0.04 0.04543806022504493 0.04542863781617335
-0.1 0.06 0.03952493405508457 0.03951738014104431
-0.1 0.08 0.03402189412667769 0.03401569943550906
-0.1 0.1 0.02895775991268519 0.02895307844903902

-0.08000000000000001 -0.1 0.08741818633441851 0.08739720969815472
-0.08000000000000001 -0.08000000000000001 0.08006391412034335 0.08004538670797079
-0.08000000000000001 -0.06 0.07285590475859547 0.07283954570784172
-0.08000000000000001 -0.04 0.065834586784899 0.06582013279412011
-0.08000000000000001 -0.02 0.05904219240254382 0.05902928635198349
-0.08000000000000001 -3.469446951953614e-18 0.05252056405960834 0.05250927364046107
-0.08000000000000001 0.02 0.04631151555777346 0.04630156681991866
-0.08000000000000001 0.04 0.04045349525060811 0.04044522407217181
-0.08000000000000001 0.06 0.03498191938491395 0.03497526328218162
-0.08000000000000001 0.08 0.02992642886768599 0.02992125689853124
-0.08000000000000001 0.1 0.02530899037341224 0.02530560233867023

-0.06 -0.1 0.08008532483117509 0.08006663326843007
-0.06 -0.08000000000000001 0.07303442120123205 0.07301790912662745
-0.06 -0.06 0.06615840700111509 0.06614373085012998
-0.06 -0.04 0.05949666856126949 0.05948346591682026
-0.06 -0.02 0.05308886681070711 0.05307719033416873
-0.06 -3.469446951953614e-18 0.0469745119861864 0.0469641108240709
-0.06 0.02 0.0411904706128872 0.04118161618954628
-0.06 0.04 0.03577086240553405 0.03576365165417504
-0.06 0.06 0.03074513207790345 0.0307393744855982
-0.06 0.08 0.02613587846942679 0.02613174500609872
-0.06 0.1 0.02195809282831936 0.02195632671949121

-0.04 -0.1 0.07294608794469088 0.07292956267507849
-0.04 -0.08000000000000001 0.06622596912503849 0.06621109443518292
-0.04 -0.06 0.05970723226480389 0.0596938699911414
-0.04 -0.04 0.05342733040812085 0.05341540608556823
-0.04 -0.02 0.04742354062160535 0.04741281952555117
-0.04 -3.469446951953614e-18 0.04173090115581306 0.04172158554191515
-0.04 0.02 0.03638215145037666 0.03637439540535795
-0.04 0.04 0.03140597962568629 0.03139965185277475
-0.04 0.06 0.02682510325956748 0.02682040814603524
-0.04 0.08 0.02265518804668283 0.02265293970721989
-0.04 0.1 0.01890657138958844 0.0189063121661388

-0.02 -0.1 0.06603968631096207 0.06602483073846565
-0.02 -0.08000000000000001 0.05967513343986837 0.05966177572956508
-0.02 -0.06 0.05353602617973026 0.05352394536150455
-0.02 -0.04 0.04765727620423891 0.04764626296829127
-0.02 -0.02 0.04207206593222124 0.04206229394676669
-0.02 -3.469446951953614e-18 0.03681137775546787 0.0368031983380692
-0.02 0.02 0.03190320251915617 0.03189644922321819
-0.02 0.04 0.02736984346253691 0.02736461775772711
-0.02 0.06 0.02322736198430924 0.0232245990755034
-0.02 0.08 0.01948690130542605 0.01948626378975622
-0.02 0.1 0.01615174587017394 0.01615257513544029

-3.469446951953614e-18 -0.1 0.05940350421803781 0.05939021200044396
-3.469446951953614e-18 -0.08000000000000001 0.05341681341996782 0.05340467532629121
-3.469446951953614e-18 -0.06 0.04767634804203789 0.04766504272918371
-3.469446951953614e-18 -0.04 0.04221315729234736 0.04220292455706528
-3.469446951953614e-18 -0.02 0.03705636578112269 0.03704782913294523
-3.469446951953614e-18 -3.469446951953614e-18 0.03223321310848595 0.03222604236031901
-3.469446951953614e-18 0.02 0.02776520628231485 0.0277595755892733
-3.469446951953614e-18 0.04 0.02366842580120634 0.0236651702043016
-3.469446951953614e-18 0.06 0.01995458161500773 0.01995361403097179
-3.469446951953614e-18 0.08 0.01662823432728506 0.01662892286287576
-3.469446951953614e-18 0.1 0.01368632068487864 0.01368839270535285

0.02 -0.1 0.0530734955705307 0.05306130518938913
0.02 -0.08000000000000001 0.04748324965043565 0.04747167988060867
0.02 -0.06 0.04215521850401168 0.04214470146154649
0.02 -0.04 0.03711694871609782 0.03710811428828764
0.02 -0.02 0.03239445581624597 0.03238692885446489
0.02 -3.469446951953614e-18 0.0280082091821055 0.02800226614025726
0.02 0.02 0.02397426701928462 0.02397061924694388
0.02 0.04 0.02030445567985349 0.02030305484269493
0.02 0.06 0.01700408742984314 0.01700457779826704
0.02 0.08 0.01407195848495972 0.01407392777366062
0.02 0.1 0.01149994376531094 0.01150341899998918

0.04 -0.1 0.0470823160734051 0.04707050851868817
0.04 -0.08000000000000001 0.04190134687401255 0.04189068532457615
0.04 -0.06 0.03699492212082336 0.03698583354319944
0.04 -0.04 0.03238733799381898 0.03237946499238435
0.04 -0.02 0.0280979217840188 0.02809176768059463
0.04 -3.469446951953614e-18 0.0241427047657166 0.02413869012533469
0.04 0.02 0.02053302418840076 0.02053128658735844
0.04 0.04 0.0172748981788681 0.01727520417420111
0.04 0.06 0.01436846071155306 0.01437025869112311
0.04 0.08 0.01180710810471827 0.01181051898866242
0.04 0.1 0.00957949035694831 0.009584243446091046

0.06 -0.1 0.04145648577789125 0.04144581672096844
0.06 -0.08000000000000001 0.03669399769713611 0.03668462692743529
0.06 -0.06 0.03221411735095275 0.03220606405533043
0.06 -0.04 0.02803537758188917 0.0280291414350278
0.06 -0.02 0.0241733907261256 0.02416908773288168
0.06 -3.469446951953614e-18 0.02063871238835853 0.02063676453840282
0.06 0.02 0.01743801844984809 0.01743811908171322
0.06 0.04 0.01457221645279284 0.01457388100349424
0.06 0.06 0.012036022557124 0.01203932826605599
0.06 0.08 0.009819799184863609 0.009824589761079434
0.06 0.1 0.007909001370036172 0.007914792757606271

0.08 -0.1 0.0362195646040631 0.03620995625688454
0.08 -0.08000000000000001 0.03187898671152189 0.03187084298157013
0.08 -0.06 0.02782342186952765 0.02781711734772295
0.08 -0.04 0.02406772090436283 0.02406323589420226
0.08 -0.02 0.02062179193164776 0.02061964855101676
0.08 -3.469446951953614e-18 0.01749255318735593 0.01749243622035283
0.08 0.02 0.01468127118128048 0.01468282509434947
0.08 0.04 0.01218389076841735 0.01218717639682787
0.08 0.06 0.009992241718078929 0.009996991392358944
0.08 0.08 0.008093529030526134 0.00809927082260886
0.08 0.1 0.006470052965086366 0.006476912704864084

0.1 -0.1 0.03138782566850862 0.03137963458438225
0.1 -0.08000000000000001 0.02746672835326063 0.02746028673385791
0.1 -0.06 0.02382896270608277 0.02382443785793731
0.1 -0.04 0.02048424256130626 0.02048199802683395
0.1 -0.02 0.01743914273446077 0.01743886867348064
0.1 -3.469446951953614e-18 0.01469525039088919 0.01469669232646941
0.1 0.02 0.01224939782626855 0.01225258856495951
0.1 0.04 0.0100945924758656 0.01009931897159086
0.1 0.06 0.008219611550304593 0.008225378179520767
0.1 0.08 0.006608618893304422 0.006615458721247545
0.1 0.1 0.005243731279779354 0.005251101309973301

