-0.15 -0.15 0.1344771410605239 0.03439831883209059 0.1392920235749422
-0.15 -0.12 0.1222289036578364 0.02726684821180229 0.1261857934288923
-0.15 -0.09 0.1099346248602436 0.02013537759151399 0.112680419151857
-0.15 -0.06 0.0976963213564189 0.01300390697122569 0.09876374499534675
-0.15 -0.03 0.08563910618833247 0.005872436350937395 0.08442324501321701
-0.15 3.388131789017201e-21 0.07391008531542981 -0.001259034269350903 0.0696460117874711
-0.15 0.03 0.06267384875104477 -0.0008497223258423782 0.05441874481071267
-0.15 0.06 0.05210223850001648 -0.0004404103823338533 0.03872773851479129
-0.15 0.09 0.04236365434442804 -3.109843882532838e-05 0.02255886993486592
-0.15 0.12 0.03360609157363908 0.0003782135046831966 0.00589758599778326
-0.15 0.15 0.02594212210514714 0.0007875254481917215 0

-0.12 -0.15 0.1223163912720111 0.02743108093621524 0.1261857934288923
-0.12 -0.12 0.1104091339731635 0.02069887687670555 0.1130795632828425
-0.12 -0.09 0.0985416743728948 0.01396667281719586 0.09957418900580715
-0.12 -0.06 0.08682656194024711 0.007234468757686171 0.08565751484929689
-0.12 -0.03 0.07539662424404253 0.0005022646981764814 0.07131701486716716
-0.12 3.388131789017201e-21 0.06440141280007372 -0.006229939361333208 0.05653978164142125
-0.12 0.03 0.05399896646854208 -0.005795938920201773 0.04131251466466282
-0.12 0.06 0.04434690032200959 -0.005361938479070338 0.02562150836874143
-0.12 0.09 0.03558884945678689 -0.004927938037938903 0.009452639788816064
-0.12 0.12 0.02784020551322267 -0.004493937596807468 0
-0.12 0.15 0.02117562395914779 -0.004059937155676033 0

-0.09 -0.15 0.1101895274415675 0.02046384304033989 0.112680419151857
-0.09 -0.12 0.09871038913612685 0.01413090554160881 0.09957418900580715
-0.09 -0.09 0.08736313039734841 0.00779796804287773 0.08606881472877182
-0.09 -0.06 0.0762679383469443 0.001465030544146649 0.07215214057226156
-0.09 -0.03 0.06556034063928309 -0.004867906954584432 0.05781164059013182
-0.09 3.388131789017201e-21 0.05538493639209996 -0.01120084445331551 0.04303440736438591
-0.09 0.03 0.04588754456353386 -0.01074215551456117 0.02780714038762748
-0.09 0.06 0.03720475721765394 -0.01028346657580682 0.0121161340917061
-0.09 0.09 0.029450814080192 -0.009824777637052478 0
-0.09 0.12 0.02270592921993701 -0.009366088698298133 0
-0.09 0.15 0.01700825639966616 -0.008907399759543788 0

-0.06 -0.15 0.09820971098832305 0.01349660514446454 0.09876374499534675
-0.06 -0.12 0.08725242575869482 0.007562934206512072 0.08565751484929689
-0.06 -0.09 0.0765224011086341 0.001629263268559599 0.07215214057226156
-0.06 -0.06 0.06614234967713309 -0.004304407669392873 0.05823546641575129
-0.06 -0.03 0.056243956598995 -0.01023807860734535 0.04389496643362156
-0.06 3.388131789017201e-21 0.04696099209897015 -0.01617174954529782 0.02911773320787565
-0.06 0.03 0.03842129177421058 -0.01568837210892056 0.01389046623111722
-0.06 0.06 0.03073505052903709 -0.01520499467254331 0
-0.06 0.09 0.02398435057534698 -0.01472161723616605 0
-0.06 0.12 0.01821504010335274 -0.0142382397997888 0
-0.06 0.15 0.01343094715472595 -0.01375486236341154 0

-0.03 -0.15 0.08650477699881636 0.006529367248589196 0.08442324501321701
-0.03 -0.12 0.07616634371188151 0.0009949628714153324 0.07131701486716716
-0.03 -0.09 0.06614834075142058 -0.004539441505758532 0.05781164059013182
-0.03 -0.06 0.05657011223635163 -0.0100738458829324 0.04389496643362156
-0.03 -0.03 0.04755368424042851 -0.01560825026010626 0.02955446645149182
-0.03 3.388131789017201e-21 0.03921718685858693 -0.02114265463728012 0.01477723322574591
-0.03 0.03 0.03166471475275974 -0.02063458870327996 0
-0.03 0.06 0.024977176210808 -0.02012652276927979 0
-0.03 0.09 0.01920444192371818 -0.01961845683527963 0
-0.03 0.12 0.01436020000600089 -0.01911039090127946 0
-0.03 0.15 0.01041847719198055 -0.0186023249672793 0

3.388131789017201e-21 -0.15 0.07521375569578327 -0.0004378706472861515 0.0696460117874711
3.388131789017201e-21 -0.12 0.06558776351102193 -0.005573008463681407 0.05653978164142125
3.388131789017201e-21 -0.09 0.05636709870790783 -0.01070814628007666 0.04303440736438591
3.388131789017201e-21 -0.06 0.04766256118143306 -0.01584328409647192 0.02911773320787565
3.388131789017201e-21 -0.03 0.03958203841644473 -0.02097842191286717 0.01477723322574591
3.388131789017201e-21 3.388131789017201e-21 0.0322222267249449 -0.02611355972926243 0
3.388131789017201e-21 0.03 0.02566064499566713 -0.02558080529763935 0
3.388131789017201e-21 0.06 0.01994828612856195 -0.02504805086601628 0
3.388131789017201e-21 0.09 0.01510508863425408 -0.0245152964343932 0
3.388131789017201e-21 0.12 0.01111620853915151 -0.02398254200277013 0
3.388131789017201e-21 0.15 0.007932344629806402 -0.02344978757114705 0

0.03 -0.15 0.06447841270361034 -4.546509724308392e-05 0.05441874481071267
0.03 -0.12 0.05564781627103402 -0.005154363612531771 0.04131251466466282
0.03 -0.09 0.04729438361744766 -0.01026326212782046 0.02780714038762748
0.03 -0.06 0.03951582266124759 -0.01537216064310915 0.01389046623111722
0.03 -0.03 0.03240053533192404 -0.02048105915839783 0
0.03 3.388131789017201e-21 0.02602106751947674 -0.02558995767368652 0
0.03 0.03 0.02042743664372705 -0.02506360973532805 0
0.03 0.06 0.01564288180316463 -0.02453726179696959 0
0.03 0.09 0.01166048447886403 -0.02401091385861112 0
0.03 0.12 0.008441971776562338 -0.02348456592025265 0
0.03 0.15 0.005923251826871196 -0.02295821798189418 0

0.06 -0.15 0.05443377526493467 0.0003469404527999837 0.03872773851479129
0.06 -0.12 0.04646531414712142 -0.004735718761382136 0.02562150836874143
0.06 -0.09 0.03902838067318015 -0.009818377975564255 0.0121161340917061
0.06 -0.06 0.03220262795983056 -0.01490103718974638 0
0.06 -0.03 0.02605473367628369 -0.01998369640392849 0
0.06 3.388131789017201e-21 0.02063199786408116 -0.02506635561811061 0
0.06 0.03 0.01595880271072237 -0.02454641417301675 0
0.06 0.06 0.01203348513210865 -0.02402647272792289 0
0.06 0.09 0.008826549085194932 -0.02350653128282903 0
0.06 0.12 0.006284739257044106 -0.02298658983773517 0
0.06 0.15 0.004334189695984622 -0.02246664839264131 0

0.09 -0.15 0.04520028232557127 0.0007393460028430513 0.02255886993486592
0.09 -0.12 0.03813871103467081 -0.0043170739102325 0.009452639788816064
0.09 -0.09 0.03164102762907208 -0.009373493823308052 0
0.09 -0.06 0.02576735815638142 -0.0144299137363836 0
0.09 -0.03 0.02056122660038778 -0.01948633364945916 0
0.09 3.388131789017201e-21 0.01604651185090455 -0.02454275356253471 0
0.09 0.03 0.01222463958940281 -0.02402921861070545 0
0.09 0.06 0.009072710947107977 -0.0235156836588762 0
0.09 0.09 0.006546405496296009 -0.02300214870704695 0
0.09 0.12 0.004582562204287534 -0.02248861375521769 0
0.09 0.15 0.003105432287388382 -0.02197507880338844 0

0.12 -0.15 0.03687434818472328 0.001131751552886119 0.00589758599778326
0.12 -0.12 0.03073701300273409 -0.003898429059082865 0
0.12 -0.09 0.02517355341937073 -0.008928609671051849 0
0.12 -0.06 0.02022313807362271 -0.01395879028302083 0
0.12 -0.03 0.01590786143600933 -0.01898897089498982 0
0.12 3.388131789017201e-21 0.01223060157047769 -0.0240191515069588 0
0.12 0.03 0.009173263358615762 -0.02351202304839415 0
0.12 0.06 0.006698781143471054 -0.02300489458982951 0
0.12 0.09 0.004753102065640832 -0.02249776613126486 0
0.12 0.12 0.00327018633357264 -0.02199063767270022 0
0.12 0.15 0.002177414620532393 -0.02148350921413557 0

0.15 -0.15 0.02951980020266439 0.001524157102929186 0
0.15 -0.12 0.02429607860296037 -0.003479784207933229 0
0.15 -0.09 0.0196336379324717 -0.008483725518795645 0
0.15 -0.06 0.01555236222876702 -0.01348766682965806 0
0.15 -0.03 0.0120550984288294 -0.01849160814052048 0
0.15 3.388131789017201e-21 0.009127207083139168 -0.02349554945138289 0
0.15 0.03 0.006737447318884001 -0.02299482748608285 0
0.15 0.06 0.004839417120581587 -0.02249410552078282 0
0.15 0.09 0.003375774414034606 -0.02199338355548278 0
0.15 0.12 0.002282512286826957 -0.02149266159018274 0
0.15 0.15 0.001492882443373998 -0.0209919396248827 0

